digraph Tree {
node [shape=box, style="filled, rounded", color="black", fontname="helvetica"] ;
edge [fontname="helvetica"] ;
0 [label="Glasses <= 0.5\ngini = 0.96\nsamples = 100.0%\nvalue = [0.04, 0.04, 0.04, 0.04, 0.04, 0.04, 0.04, 0.04, 0.04\n0.04, 0.04, 0.04, 0.04, 0.04, 0.04, 0.04, 0.04, 0.04\n0.04, 0.04, 0.04, 0.04, 0.04, 0.04]\nclass = Alex", fillcolor="#ffffff"] ;
1 [label="Beard <= 0.5\ngini = 0.95\nsamples = 79.2%\nvalue = [0.05, 0.05, 0.05, 0.05, 0.05, 0.05, 0.05, 0.0, 0.05\n0.05, 0.05, 0.05, 0.05, 0.0, 0.05, 0.05, 0.0, 0.05\n0.05, 0.05, 0.05, 0.0, 0.05, 0.0]\nclass = Alex", fillcolor="#ffffff"] ;
0 -> 1 [labeldistance=2.5, labelangle=45, headlabel="True"] ;
2 [label="Hat <= 0.5\ngini = 0.93\nsamples = 62.5%\nvalue = [0.07, 0.07, 0.07, 0.07, 0.07, 0.0, 0.07, 0.0, 0.0\n0.07, 0.07, 0.07, 0.07, 0.0, 0.07, 0.07, 0.0, 0.07\n0.0, 0.0, 0.07, 0.0, 0.07, 0.0]\nclass = Alex", fillcolor="#ffffff"] ;
1 -> 2 ;
3 [label="White Hair <= 0.5\ngini = 0.91\nsamples = 45.8%\nvalue = [0.09, 0.09, 0.09, 0.09, 0.0, 0.0, 0.09, 0.0, 0.0\n0.0, 0.09, 0.0, 0.09, 0.0, 0.0, 0.09, 0.0, 0.09, 0.0\n0.0, 0.09, 0.0, 0.09, 0.0]\nclass = Alex", fillcolor="#ffffff"] ;
2 -> 3 ;
4 [label="Wide Nose <= 0.5\ngini = 0.89\nsamples = 37.5%\nvalue = [0.11, 0.11, 0.11, 0.11, 0.0, 0.0, 0.11, 0.0, 0.0\n0.0, 0.11, 0.0, 0.11, 0.0, 0.0, 0.11, 0.0, 0.0, 0.0\n0.0, 0.11, 0.0, 0.0, 0.0]\nclass = Alex", fillcolor="#ffffff"] ;
3 -> 4 ;
5 [label="Brown Hair <= 0.5\ngini = 0.8\nsamples = 20.8%\nvalue = [0.2, 0.2, 0.2, 0.0, 0.0, 0.0, 0.2, 0.0, 0.0, 0.0\n0.2, 0.0, 0.0, 0.0, 0.0, 0.0, 0.0, 0.0, 0.0, 0.0\n0.0, 0.0, 0.0, 0.0]\nclass = Alex", fillcolor="#ffffff"] ;
4 -> 5 ;
6 [label="Moustache <= 0.5\ngini = 0.75\nsamples = 16.7%\nvalue = [0.0, 0.25, 0.25, 0.0, 0.0, 0.0, 0.25, 0.0, 0.0, 0.0\n0.25, 0.0, 0.0, 0.0, 0.0, 0.0, 0.0, 0.0, 0.0, 0.0\n0.0, 0.0, 0.0, 0.0]\nclass = Alfred", fillcolor="#ffffff"] ;
5 -> 6 ;
7 [label="Blue Eyes <= 0.5\ngini = 0.5\nsamples = 8.3%\nvalue = [0.0, 0.0, 0.5, 0.0, 0.0, 0.0, 0.0, 0.0, 0.0, 0.0\n0.5, 0.0, 0.0, 0.0, 0.0, 0.0, 0.0, 0.0, 0.0, 0.0\n0.0, 0.0, 0.0, 0.0]\nclass = Anita", fillcolor="#ffffff"] ;
6 -> 7 ;
8 [label="gini = 0.0\nsamples = 4.2%\nvalue = [0.0, 0.0, 0.0, 0.0, 0.0, 0.0, 0.0, 0.0, 0.0, 0.0\n1.0, 0.0, 0.0, 0.0, 0.0, 0.0, 0.0, 0.0, 0.0, 0.0\n0.0, 0.0, 0.0, 0.0]\nclass = Frans", fillcolor="#39e5d7"] ;
7 -> 8 ;
9 [label="gini = 0.0\nsamples = 4.2%\nvalue = [0.0, 0.0, 1.0, 0.0, 0.0, 0.0, 0.0, 0.0, 0.0, 0.0\n0.0, 0.0, 0.0, 0.0, 0.0, 0.0, 0.0, 0.0, 0.0, 0.0\n0.0, 0.0, 0.0, 0.0]\nclass = Anita", fillcolor="#e5d739"] ;
7 -> 9 ;
10 [label="Blue Eyes <= 0.5\ngini = 0.5\nsamples = 8.3%\nvalue = [0.0, 0.5, 0.0, 0.0, 0.0, 0.0, 0.5, 0.0, 0.0, 0.0\n0.0, 0.0, 0.0, 0.0, 0.0, 0.0, 0.0, 0.0, 0.0, 0.0\n0.0, 0.0, 0.0, 0.0]\nclass = Alfred", fillcolor="#ffffff"] ;
6 -> 10 ;
11 [label="gini = 0.0\nsamples = 4.2%\nvalue = [0.0, 0.0, 0.0, 0.0, 0.0, 0.0, 1.0, 0.0, 0.0, 0.0\n0.0, 0.0, 0.0, 0.0, 0.0, 0.0, 0.0, 0.0, 0.0, 0.0\n0.0, 0.0, 0.0, 0.0]\nclass = Charles", fillcolor="#47e539"] ;
10 -> 11 ;
12 [label="gini = 0.0\nsamples = 4.2%\nvalue = [0.0, 1.0, 0.0, 0.0, 0.0, 0.0, 0.0, 0.0, 0.0, 0.0\n0.0, 0.0, 0.0, 0.0, 0.0, 0.0, 0.0, 0.0, 0.0, 0.0\n0.0, 0.0, 0.0, 0.0]\nclass = Alfred", fillcolor="#e5ac39"] ;
10 -> 12 ;
13 [label="gini = 0.0\nsamples = 4.2%\nvalue = [1.0, 0.0, 0.0, 0.0, 0.0, 0.0, 0.0, 0.0, 0.0, 0.0\n0.0, 0.0, 0.0, 0.0, 0.0, 0.0, 0.0, 0.0, 0.0, 0.0\n0.0, 0.0, 0.0, 0.0]\nclass = Alex", fillcolor="#e58139"] ;
5 -> 13 ;
14 [label="Brown Hair <= 0.5\ngini = 0.75\nsamples = 16.7%\nvalue = [0.0, 0.0, 0.0, 0.25, 0.0, 0.0, 0.0, 0.0, 0.0, 0.0\n0.0, 0.0, 0.25, 0.0, 0.0, 0.25, 0.0, 0.0, 0.0, 0.0\n0.25, 0.0, 0.0, 0.0]\nclass = Anne", fillcolor="#ffffff"] ;
4 -> 14 ;
15 [label="gini = 0.0\nsamples = 4.2%\nvalue = [0.0, 0.0, 0.0, 0.0, 0.0, 0.0, 0.0, 0.0, 0.0, 0.0\n0.0, 0.0, 1.0, 0.0, 0.0, 0.0, 0.0, 0.0, 0.0, 0.0\n0.0, 0.0, 0.0, 0.0]\nclass = Herman", fillcolor="#399de5"] ;
14 -> 15 ;
16 [label="Moustache <= 0.5\ngini = 0.67\nsamples = 12.5%\nvalue = [0.0, 0.0, 0.0, 0.33, 0.0, 0.0, 0.0, 0.0, 0.0, 0.0\n0.0, 0.0, 0.0, 0.0, 0.0, 0.33, 0.0, 0.0, 0.0, 0.0\n0.33, 0.0, 0.0, 0.0]\nclass = Anne", fillcolor="#ffffff"] ;
14 -> 16 ;
17 [label="Blue Eyes <= 0.5\ngini = 0.5\nsamples = 8.3%\nvalue = [0.0, 0.0, 0.0, 0.5, 0.0, 0.0, 0.0, 0.0, 0.0, 0.0\n0.0, 0.0, 0.0, 0.0, 0.0, 0.0, 0.0, 0.0, 0.0, 0.0\n0.5, 0.0, 0.0, 0.0]\nclass = Anne", fillcolor="#ffffff"] ;
16 -> 17 ;
18 [label="gini = 0.0\nsamples = 4.2%\nvalue = [0.0, 0.0, 0.0, 1.0, 0.0, 0.0, 0.0, 0.0, 0.0, 0.0\n0.0, 0.0, 0.0, 0.0, 0.0, 0.0, 0.0, 0.0, 0.0, 0.0\n0.0, 0.0, 0.0, 0.0]\nclass = Anne", fillcolor="#c8e539"] ;
17 -> 18 ;
19 [label="gini = 0.0\nsamples = 4.2%\nvalue = [0.0, 0.0, 0.0, 0.0, 0.0, 0.0, 0.0, 0.0, 0.0, 0.0\n0.0, 0.0, 0.0, 0.0, 0.0, 0.0, 0.0, 0.0, 0.0, 0.0\n1.0, 0.0, 0.0, 0.0]\nclass = Robert", fillcolor="#e5399d"] ;
17 -> 19 ;
20 [label="gini = 0.0\nsamples = 4.2%\nvalue = [0.0, 0.0, 0.0, 0.0, 0.0, 0.0, 0.0, 0.0, 0.0, 0.0\n0.0, 0.0, 0.0, 0.0, 0.0, 1.0, 0.0, 0.0, 0.0, 0.0\n0.0, 0.0, 0.0, 0.0]\nclass = Max", fillcolor="#5639e5"] ;
16 -> 20 ;
21 [label="Wide Nose <= 0.5\ngini = 0.5\nsamples = 8.3%\nvalue = [0.0, 0.0, 0.0, 0.0, 0.0, 0.0, 0.0, 0.0, 0.0, 0.0\n0.0, 0.0, 0.0, 0.0, 0.0, 0.0, 0.0, 0.5, 0.0, 0.0\n0.0, 0.0, 0.5, 0.0]\nclass = Peter", fillcolor="#ffffff"] ;
3 -> 21 ;
22 [label="gini = 0.0\nsamples = 4.2%\nvalue = [0.0, 0.0, 0.0, 0.0, 0.0, 0.0, 0.0, 0.0, 0.0, 0.0\n0.0, 0.0, 0.0, 0.0, 0.0, 0.0, 0.0, 0.0, 0.0, 0.0\n0.0, 0.0, 1.0, 0.0]\nclass = Susan", fillcolor="#e53947"] ;
21 -> 22 ;
23 [label="gini = 0.0\nsamples = 4.2%\nvalue = [0.0, 0.0, 0.0, 0.0, 0.0, 0.0, 0.0, 0.0, 0.0, 0.0\n0.0, 0.0, 0.0, 0.0, 0.0, 0.0, 0.0, 1.0, 0.0, 0.0\n0.0, 0.0, 0.0, 0.0]\nclass = Peter", fillcolor="#ac39e5"] ;
21 -> 23 ;
24 [label="Wide Nose <= 0.5\ngini = 0.75\nsamples = 16.7%\nvalue = [0.0, 0.0, 0.0, 0.0, 0.25, 0.0, 0.0, 0.0, 0.0, 0.25\n0.0, 0.25, 0.0, 0.0, 0.25, 0.0, 0.0, 0.0, 0.0, 0.0\n0.0, 0.0, 0.0, 0.0]\nclass = Bernard", fillcolor="#ffffff"] ;
2 -> 24 ;
25 [label="White Hair <= 0.5\ngini = 0.67\nsamples = 12.5%\nvalue = [0.0, 0.0, 0.0, 0.0, 0.0, 0.0, 0.0, 0.0, 0.0, 0.33\n0.0, 0.33, 0.0, 0.0, 0.33, 0.0, 0.0, 0.0, 0.0, 0.0\n0.0, 0.0, 0.0, 0.0]\nclass = Eric", fillcolor="#ffffff"] ;
24 -> 25 ;
26 [label="Brown Hair <= 0.5\ngini = 0.5\nsamples = 8.3%\nvalue = [0.0, 0.0, 0.0, 0.0, 0.0, 0.0, 0.0, 0.0, 0.0, 0.5\n0.0, 0.0, 0.0, 0.0, 0.5, 0.0, 0.0, 0.0, 0.0, 0.0\n0.0, 0.0, 0.0, 0.0]\nclass = Eric", fillcolor="#ffffff"] ;
25 -> 26 ;
27 [label="gini = 0.0\nsamples = 4.2%\nvalue = [0.0, 0.0, 0.0, 0.0, 0.0, 0.0, 0.0, 0.0, 0.0, 1.0\n0.0, 0.0, 0.0, 0.0, 0.0, 0.0, 0.0, 0.0, 0.0, 0.0\n0.0, 0.0, 0.0, 0.0]\nclass = Eric", fillcolor="#39e5ac"] ;
26 -> 27 ;
28 [label="gini = 0.0\nsamples = 4.2%\nvalue = [0.0, 0.0, 0.0, 0.0, 0.0, 0.0, 0.0, 0.0, 0.0, 0.0\n0.0, 0.0, 0.0, 0.0, 1.0, 0.0, 0.0, 0.0, 0.0, 0.0\n0.0, 0.0, 0.0, 0.0]\nclass = Maria", fillcolor="#3947e5"] ;
26 -> 28 ;
29 [label="gini = 0.0\nsamples = 4.2%\nvalue = [0.0, 0.0, 0.0, 0.0, 0.0, 0.0, 0.0, 0.0, 0.0, 0.0\n0.0, 1.0, 0.0, 0.0, 0.0, 0.0, 0.0, 0.0, 0.0, 0.0\n0.0, 0.0, 0.0, 0.0]\nclass = George", fillcolor="#39c8e5"] ;
25 -> 29 ;
30 [label="gini = 0.0\nsamples = 4.2%\nvalue = [0.0, 0.0, 0.0, 0.0, 1.0, 0.0, 0.0, 0.0, 0.0, 0.0\n0.0, 0.0, 0.0, 0.0, 0.0, 0.0, 0.0, 0.0, 0.0, 0.0\n0.0, 0.0, 0.0, 0.0]\nclass = Bernard", fillcolor="#9de539"] ;
24 -> 30 ;
31 [label="Bold <= 0.5\ngini = 0.75\nsamples = 16.7%\nvalue = [0.0, 0.0, 0.0, 0.0, 0.0, 0.25, 0.0, 0.0, 0.25, 0.0\n0.0, 0.0, 0.0, 0.0, 0.0, 0.0, 0.0, 0.0, 0.25, 0.25\n0.0, 0.0, 0.0, 0.0]\nclass = Bill", fillcolor="#ffffff"] ;
1 -> 31 ;
32 [label="Brown Hair <= 0.5\ngini = 0.5\nsamples = 8.3%\nvalue = [0.0, 0.0, 0.0, 0.0, 0.0, 0.0, 0.0, 0.0, 0.5, 0.0\n0.0, 0.0, 0.0, 0.0, 0.0, 0.0, 0.0, 0.0, 0.5, 0.0\n0.0, 0.0, 0.0, 0.0]\nclass = David", fillcolor="#ffffff"] ;
31 -> 32 ;
33 [label="gini = 0.0\nsamples = 4.2%\nvalue = [0.0, 0.0, 0.0, 0.0, 0.0, 0.0, 0.0, 0.0, 1.0, 0.0\n0.0, 0.0, 0.0, 0.0, 0.0, 0.0, 0.0, 0.0, 0.0, 0.0\n0.0, 0.0, 0.0, 0.0]\nclass = David", fillcolor="#39e581"] ;
32 -> 33 ;
34 [label="gini = 0.0\nsamples = 4.2%\nvalue = [0.0, 0.0, 0.0, 0.0, 0.0, 0.0, 0.0, 0.0, 0.0, 0.0\n0.0, 0.0, 0.0, 0.0, 0.0, 0.0, 0.0, 0.0, 1.0, 0.0\n0.0, 0.0, 0.0, 0.0]\nclass = Philip", fillcolor="#d739e5"] ;
32 -> 34 ;
35 [label="Brown Hair <= 0.5\ngini = 0.5\nsamples = 8.3%\nvalue = [0.0, 0.0, 0.0, 0.0, 0.0, 0.5, 0.0, 0.0, 0.0, 0.0\n0.0, 0.0, 0.0, 0.0, 0.0, 0.0, 0.0, 0.0, 0.0, 0.5\n0.0, 0.0, 0.0, 0.0]\nclass = Bill", fillcolor="#ffffff"] ;
31 -> 35 ;
36 [label="gini = 0.0\nsamples = 4.2%\nvalue = [0.0, 0.0, 0.0, 0.0, 0.0, 1.0, 0.0, 0.0, 0.0, 0.0\n0.0, 0.0, 0.0, 0.0, 0.0, 0.0, 0.0, 0.0, 0.0, 0.0\n0.0, 0.0, 0.0, 0.0]\nclass = Bill", fillcolor="#72e539"] ;
35 -> 36 ;
37 [label="gini = 0.0\nsamples = 4.2%\nvalue = [0.0, 0.0, 0.0, 0.0, 0.0, 0.0, 0.0, 0.0, 0.0, 0.0\n0.0, 0.0, 0.0, 0.0, 0.0, 0.0, 0.0, 0.0, 0.0, 1.0\n0.0, 0.0, 0.0, 0.0]\nclass = Richard", fillcolor="#e539c8"] ;
35 -> 37 ;
38 [label="White Hair <= 0.5\ngini = 0.8\nsamples = 20.8%\nvalue = [0.0, 0.0, 0.0, 0.0, 0.0, 0.0, 0.0, 0.2, 0.0, 0.0\n0.0, 0.0, 0.0, 0.2, 0.0, 0.0, 0.2, 0.0, 0.0, 0.0\n0.0, 0.2, 0.0, 0.2]\nclass = Claire", fillcolor="#ffffff"] ;
0 -> 38 [labeldistance=2.5, labelangle=-45, headlabel="False"] ;
39 [label="Bold <= 0.5\ngini = 0.67\nsamples = 12.5%\nvalue = [0.0, 0.0, 0.0, 0.0, 0.0, 0.0, 0.0, 0.33, 0.0, 0.0\n0.0, 0.0, 0.0, 0.33, 0.0, 0.0, 0.0, 0.0, 0.0, 0.0\n0.0, 0.0, 0.0, 0.33]\nclass = Claire", fillcolor="#ffffff"] ;
38 -> 39 ;
40 [label="Hat <= 0.5\ngini = 0.5\nsamples = 8.3%\nvalue = [0.0, 0.0, 0.0, 0.0, 0.0, 0.0, 0.0, 0.5, 0.0, 0.0\n0.0, 0.0, 0.0, 0.5, 0.0, 0.0, 0.0, 0.0, 0.0, 0.0\n0.0, 0.0, 0.0, 0.0]\nclass = Claire", fillcolor="#ffffff"] ;
39 -> 40 ;
41 [label="gini = 0.0\nsamples = 4.2%\nvalue = [0.0, 0.0, 0.0, 0.0, 0.0, 0.0, 0.0, 0.0, 0.0, 0.0\n0.0, 0.0, 0.0, 1.0, 0.0, 0.0, 0.0, 0.0, 0.0, 0.0\n0.0, 0.0, 0.0, 0.0]\nclass = Joe", fillcolor="#3972e5"] ;
40 -> 41 ;
42 [label="gini = 0.0\nsamples = 4.2%\nvalue = [0.0, 0.0, 0.0, 0.0, 0.0, 0.0, 0.0, 1.0, 0.0, 0.0\n0.0, 0.0, 0.0, 0.0, 0.0, 0.0, 0.0, 0.0, 0.0, 0.0\n0.0, 0.0, 0.0, 0.0]\nclass = Claire", fillcolor="#39e556"] ;
40 -> 42 ;
43 [label="gini = 0.0\nsamples = 4.2%\nvalue = [0.0, 0.0, 0.0, 0.0, 0.0, 0.0, 0.0, 0.0, 0.0, 0.0\n0.0, 0.0, 0.0, 0.0, 0.0, 0.0, 0.0, 0.0, 0.0, 0.0\n0.0, 0.0, 0.0, 1.0]\nclass = Tom", fillcolor="#e55639"] ;
39 -> 43 ;
44 [label="Bold <= 0.5\ngini = 0.5\nsamples = 8.3%\nvalue = [0.0, 0.0, 0.0, 0.0, 0.0, 0.0, 0.0, 0.0, 0.0, 0.0\n0.0, 0.0, 0.0, 0.0, 0.0, 0.0, 0.5, 0.0, 0.0, 0.0\n0.0, 0.5, 0.0, 0.0]\nclass = Paul", fillcolor="#ffffff"] ;
38 -> 44 ;
45 [label="gini = 0.0\nsamples = 4.2%\nvalue = [0.0, 0.0, 0.0, 0.0, 0.0, 0.0, 0.0, 0.0, 0.0, 0.0\n0.0, 0.0, 0.0, 0.0, 0.0, 0.0, 1.0, 0.0, 0.0, 0.0\n0.0, 0.0, 0.0, 0.0]\nclass = Paul", fillcolor="#8139e5"] ;
44 -> 45 ;
46 [label="gini = 0.0\nsamples = 4.2%\nvalue = [0.0, 0.0, 0.0, 0.0, 0.0, 0.0, 0.0, 0.0, 0.0, 0.0\n0.0, 0.0, 0.0, 0.0, 0.0, 0.0, 0.0, 0.0, 0.0, 0.0\n0.0, 1.0, 0.0, 0.0]\nclass = Sam", fillcolor="#e53972"] ;
44 -> 46 ;
}